digraph Tree {
node [shape=box] ;
0 [label="X[0] <= 0.0308\ngini = 0.75\nsamples = 4000\nvalue = [1000, 1000, 1000, 1000]"] ;
1 [label="X[1] <= -0.0961\ngini = 0.5781\nsamples = 2035\nvalue = [925, 99, 936, 75]"] ;
0 -> 1 [labeldistance=2.5, labelangle=45, headlabel="True"] ;
2 [label="X[0] <= -0.1744\ngini = 0.2979\nsamples = 1021\nvalue = [848, 99, 49, 25]"] ;
1 -> 2 ;
3 [label="X[1] <= -0.2368\ngini = 0.1957\nsamples = 861\nvalue = [770, 27, 49, 15]"] ;
2 -> 3 ;
4 [label="X[0] <= -0.3352\ngini = 0.1414\nsamples = 751\nvalue = [695, 27, 21, 8]"] ;
3 -> 4 ;
5 [label="X[0] <= -1.1317\ngini = 0.0959\nsamples = 622\nvalue = [591, 7, 21, 3]"] ;
4 -> 5 ;
6 [label="X[1] <= -0.5171\ngini = 0.3314\nsamples = 62\nvalue = [49, 0, 13, 0]"] ;
5 -> 6 ;
7 [label="gini = 0.0\nsamples = 46\nvalue = [46, 0, 0, 0]"] ;
6 -> 7 ;
8 [label="gini = 0.3047\nsamples = 16\nvalue = [3, 0, 13, 0]"] ;
6 -> 8 ;
9 [label="X[1] <= -1.2025\ngini = 0.0629\nsamples = 560\nvalue = [542, 7, 8, 3]"] ;
5 -> 9 ;
10 [label="gini = 0.3599\nsamples = 17\nvalue = [13, 4, 0, 0]"] ;
9 -> 10 ;
11 [label="X[1] <= -0.3834\ngini = 0.0506\nsamples = 543\nvalue = [529, 3, 8, 3]"] ;
9 -> 11 ;
12 [label="X[0] <= -0.5419\ngini = 0.0263\nsamples = 451\nvalue = [445, 3, 0, 3]"] ;
11 -> 12 ;
13 [label="X[1] <= -0.5962\ngini = 0.006\nsamples = 333\nvalue = [332, 0, 0, 1]"] ;
12 -> 13 ;
14 [label="gini = 0.0\nsamples = 247\nvalue = [247, 0, 0, 0]"] ;
13 -> 14 ;
15 [label="X[1] <= -0.5783\ngini = 0.023\nsamples = 86\nvalue = [85, 0, 0, 1]"] ;
13 -> 15 ;
16 [label="gini = 0.1244\nsamples = 15\nvalue = [14, 0, 0, 1]"] ;
15 -> 16 ;
17 [label="gini = 0.0\nsamples = 71\nvalue = [71, 0, 0, 0]"] ;
15 -> 17 ;
18 [label="X[1] <= -0.8778\ngini = 0.082\nsamples = 118\nvalue = [113, 3, 0, 2]"] ;
12 -> 18 ;
19 [label="gini = 0.32\nsamples = 15\nvalue = [12, 3, 0, 0]"] ;
18 -> 19 ;
20 [label="X[1] <= -0.4539\ngini = 0.0381\nsamples = 103\nvalue = [101, 0, 0, 2]"] ;
18 -> 20 ;
21 [label="gini = 0.0\nsamples = 79\nvalue = [79, 0, 0, 0]"] ;
20 -> 21 ;
22 [label="gini = 0.1528\nsamples = 24\nvalue = [22, 0, 0, 2]"] ;
20 -> 22 ;
23 [label="X[0] <= -0.7639\ngini = 0.1588\nsamples = 92\nvalue = [84, 0, 8, 0]"] ;
11 -> 23 ;
24 [label="gini = 0.4978\nsamples = 15\nvalue = [7, 0, 8, 0]"] ;
23 -> 24 ;
25 [label="gini = 0.0\nsamples = 77\nvalue = [77, 0, 0, 0]"] ;
23 -> 25 ;
26 [label="X[1] <= -0.7771\ngini = 0.3245\nsamples = 129\nvalue = [104, 20, 0, 5]"] ;
4 -> 26 ;
27 [label="gini = 0.3628\nsamples = 21\nvalue = [5, 16, 0, 0]"] ;
26 -> 27 ;
28 [label="X[1] <= -0.568\ngini = 0.1562\nsamples = 108\nvalue = [99, 4, 0, 5]"] ;
26 -> 28 ;
29 [label="gini = 0.3099\nsamples = 22\nvalue = [18, 3, 0, 1]"] ;
28 -> 29 ;
30 [label="X[1] <= -0.3652\ngini = 0.1106\nsamples = 86\nvalue = [81, 1, 0, 4]"] ;
28 -> 30 ;
31 [label="X[1] <= -0.439\ngini = 0.0425\nsamples = 46\nvalue = [45, 1, 0, 0]"] ;
30 -> 31 ;
32 [label="gini = 0.0\nsamples = 30\nvalue = [30, 0, 0, 0]"] ;
31 -> 32 ;
33 [label="gini = 0.1172\nsamples = 16\nvalue = [15, 1, 0, 0]"] ;
31 -> 33 ;
34 [label="X[1] <= -0.3224\ngini = 0.18\nsamples = 40\nvalue = [36, 0, 0, 4]"] ;
30 -> 34 ;
35 [label="gini = 0.32\nsamples = 15\nvalue = [12, 0, 0, 3]"] ;
34 -> 35 ;
36 [label="gini = 0.0768\nsamples = 25\nvalue = [24, 0, 0, 1]"] ;
34 -> 36 ;
37 [label="X[0] <= -0.6146\ngini = 0.4663\nsamples = 110\nvalue = [75, 0, 28, 7]"] ;
3 -> 37 ;
38 [label="X[0] <= -0.9169\ngini = 0.4388\nsamples = 40\nvalue = [13, 0, 27, 0]"] ;
37 -> 38 ;
39 [label="gini = 0.0\nsamples = 16\nvalue = [0, 0, 16, 0]"] ;
38 -> 39 ;
40 [label="gini = 0.4965\nsamples = 24\nvalue = [13, 0, 11, 0]"] ;
38 -> 40 ;
41 [label="X[0] <= -0.3527\ngini = 0.2053\nsamples = 70\nvalue = [62, 0, 1, 7]"] ;
37 -> 41 ;
42 [label="X[1] <= -0.171\ngini = 0.0555\nsamples = 35\nvalue = [34, 0, 0, 1]"] ;
41 -> 42 ;
43 [label="gini = 0.0\nsamples = 20\nvalue = [20, 0, 0, 0]"] ;
42 -> 43 ;
44 [label="gini = 0.1244\nsamples = 15\nvalue = [14, 0, 0, 1]"] ;
42 -> 44 ;
45 [label="X[0] <= -0.2716\ngini = 0.3298\nsamples = 35\nvalue = [28, 0, 1, 6]"] ;
41 -> 45 ;
46 [label="gini = 0.445\nsamples = 20\nvalue = [14, 0, 1, 5]"] ;
45 -> 46 ;
47 [label="gini = 0.1244\nsamples = 15\nvalue = [14, 0, 0, 1]"] ;
45 -> 47 ;
48 [label="X[1] <= -0.7021\ngini = 0.5559\nsamples = 160\nvalue = [78, 72, 0, 10]"] ;
2 -> 48 ;
49 [label="X[1] <= -0.8163\ngini = 0.0345\nsamples = 57\nvalue = [1, 56, 0, 0]"] ;
48 -> 49 ;
50 [label="gini = 0.0\nsamples = 42\nvalue = [0, 42, 0, 0]"] ;
49 -> 50 ;
51 [label="gini = 0.1244\nsamples = 15\nvalue = [1, 14, 0, 0]"] ;
49 -> 51 ;
52 [label="X[1] <= -0.4548\ngini = 0.4076\nsamples = 103\nvalue = [77, 16, 0, 10]"] ;
48 -> 52 ;
53 [label="gini = 0.4993\nsamples = 27\nvalue = [14, 13, 0, 0]"] ;
52 -> 53 ;
54 [label="X[1] <= -0.1831\ngini = 0.294\nsamples = 76\nvalue = [63, 3, 0, 10]"] ;
52 -> 54 ;
55 [label="X[0] <= -0.0489\ngini = 0.2228\nsamples = 57\nvalue = [50, 3, 0, 4]"] ;
54 -> 55 ;
56 [label="gini = 0.0666\nsamples = 29\nvalue = [28, 0, 0, 1]"] ;
55 -> 56 ;
57 [label="gini = 0.3597\nsamples = 28\nvalue = [22, 3, 0, 3]"] ;
55 -> 57 ;
58 [label="gini = 0.4321\nsamples = 19\nvalue = [13, 0, 0, 6]"] ;
54 -> 58 ;
59 [label="X[1] <= 0.1729\ngini = 0.2266\nsamples = 1014\nvalue = [77, 0, 887, 50]"] ;
1 -> 59 ;
60 [label="X[0] <= -0.434\ngini = 0.5249\nsamples = 232\nvalue = [63, 0, 145, 24]"] ;
59 -> 60 ;
61 [label="X[0] <= -0.5578\ngini = 0.0838\nsamples = 137\nvalue = [6, 0, 131, 0]"] ;
60 -> 61 ;
62 [label="X[1] <= -0.0067\ngini = 0.0325\nsamples = 121\nvalue = [2, 0, 119, 0]"] ;
61 -> 62 ;
63 [label="X[0] <= -0.847\ngini = 0.1023\nsamples = 37\nvalue = [2, 0, 35, 0]"] ;
62 -> 63 ;
64 [label="gini = 0.0\nsamples = 22\nvalue = [0, 0, 22, 0]"] ;
63 -> 64 ;
65 [label="gini = 0.2311\nsamples = 15\nvalue = [2, 0, 13, 0]"] ;
63 -> 65 ;
66 [label="gini = 0.0\nsamples = 84\nvalue = [0, 0, 84, 0]"] ;
62 -> 66 ;
67 [label="gini = 0.375\nsamples = 16\nvalue = [4, 0, 12, 0]"] ;
61 -> 67 ;
68 [label="X[1] <= 0.1198\ngini = 0.5545\nsamples = 95\nvalue = [57, 0, 14, 24]"] ;
60 -> 68 ;
69 [label="X[0] <= -0.0408\ngini = 0.4658\nsamples = 71\nvalue = [49, 0, 6, 16]"] ;
68 -> 69 ;
70 [label="X[0] <= -0.2684\ngini = 0.4267\nsamples = 56\nvalue = [41, 0, 6, 9]"] ;
69 -> 70 ;
71 [label="gini = 0.3676\nsamples = 27\nvalue = [21, 0, 4, 2]"] ;
70 -> 71 ;
72 [label="gini = 0.4614\nsamples = 29\nvalue = [20, 0, 2, 7]"] ;
70 -> 72 ;
73 [label="gini = 0.4978\nsamples = 15\nvalue = [8, 0, 0, 7]"] ;
69 -> 73 ;
74 [label="gini = 0.6667\nsamples = 24\nvalue = [8, 0, 8, 8]"] ;
68 -> 74 ;
75 [label="X[0] <= -0.1032\ngini = 0.0983\nsamples = 782\nvalue = [14, 0, 742, 26]"] ;
59 -> 75 ;
76 [label="X[1] <= 0.3221\ngini = 0.0504\nsamples = 701\nvalue = [8, 0, 683, 10]"] ;
75 -> 76 ;
77 [label="X[0] <= -0.3116\ngini = 0.185\nsamples = 150\nvalue = [8, 0, 135, 7]"] ;
76 -> 77 ;
78 [label="X[0] <= -0.4408\ngini = 0.0447\nsamples = 132\nvalue = [2, 0, 129, 1]"] ;
77 -> 78 ;
79 [label="gini = 0.0\nsamples = 116\nvalue = [0, 0, 116, 0]"] ;
78 -> 79 ;
80 [label="gini = 0.3203\nsamples = 16\nvalue = [2, 0, 13, 1]"] ;
78 -> 80 ;
81 [label="gini = 0.6667\nsamples = 18\nvalue = [6, 0, 6, 6]"] ;
77 -> 81 ;
82 [label="X[0] <= -0.1437\ngini = 0.0108\nsamples = 551\nvalue = [0, 0, 548, 3]"] ;
76 -> 82 ;
83 [label="X[0] <= -0.3105\ngini = 0.0038\nsamples = 520\nvalue = [0, 0, 519, 1]"] ;
82 -> 83 ;
84 [label="gini = 0.0\nsamples = 381\nvalue = [0, 0, 381, 0]"] ;
83 -> 84 ;
85 [label="X[0] <= -0.2929\ngini = 0.0143\nsamples = 139\nvalue = [0, 0, 138, 1]"] ;
83 -> 85 ;
86 [label="gini = 0.1244\nsamples = 15\nvalue = [0, 0, 14, 1]"] ;
85 -> 86 ;
87 [label="gini = 0.0\nsamples = 124\nvalue = [0, 0, 124, 0]"] ;
85 -> 87 ;
88 [label="X[1] <= 0.8127\ngini = 0.1207\nsamples = 31\nvalue = [0, 0, 29, 2]"] ;
82 -> 88 ;
89 [label="gini = 0.2311\nsamples = 15\nvalue = [0, 0, 13, 2]"] ;
88 -> 89 ;
90 [label="gini = 0.0\nsamples = 16\nvalue = [0, 0, 16, 0]"] ;
88 -> 90 ;
91 [label="X[1] <= 0.4512\ngini = 0.4249\nsamples = 81\nvalue = [6, 0, 59, 16]"] ;
75 -> 91 ;
92 [label="gini = 0.6091\nsamples = 27\nvalue = [5, 0, 8, 14]"] ;
91 -> 92 ;
93 [label="X[1] <= 0.651\ngini = 0.1063\nsamples = 54\nvalue = [1, 0, 51, 2]"] ;
91 -> 93 ;
94 [label="gini = 0.3378\nsamples = 15\nvalue = [1, 0, 12, 2]"] ;
93 -> 94 ;
95 [label="gini = 0.0\nsamples = 39\nvalue = [0, 0, 39, 0]"] ;
93 -> 95 ;
96 [label="X[1] <= -0.0147\ngini = 0.5656\nsamples = 1965\nvalue = [75, 901, 64, 925]"] ;
0 -> 96 [labeldistance=2.5, labelangle=-45, headlabel="False"] ;
97 [label="X[1] <= -0.2218\ngini = 0.1794\nsamples = 910\nvalue = [42, 822, 0, 46]"] ;
96 -> 97 ;
98 [label="X[0] <= 0.1321\ngini = 0.0552\nsamples = 709\nvalue = [14, 689, 0, 6]"] ;
97 -> 98 ;
99 [label="X[1] <= -0.5148\ngini = 0.269\nsamples = 70\nvalue = [10, 59, 0, 1]"] ;
98 -> 99 ;
100 [label="X[0] <= 0.1119\ngini = 0.0364\nsamples = 54\nvalue = [1, 53, 0, 0]"] ;
99 -> 100 ;
101 [label="gini = 0.0\nsamples = 39\nvalue = [0, 39, 0, 0]"] ;
100 -> 101 ;
102 [label="gini = 0.1244\nsamples = 15\nvalue = [1, 14, 0, 0]"] ;
100 -> 102 ;
103 [label="gini = 0.5391\nsamples = 16\nvalue = [9, 6, 0, 1]"] ;
99 -> 103 ;
104 [label="X[1] <= -0.3426\ngini = 0.0279\nsamples = 639\nvalue = [4, 630, 0, 5]"] ;
98 -> 104 ;
105 [label="X[0] <= 0.3674\ngini = 0.0117\nsamples = 512\nvalue = [3, 509, 0, 0]"] ;
104 -> 105 ;
106 [label="X[1] <= -0.6613\ngini = 0.0328\nsamples = 180\nvalue = [3, 177, 0, 0]"] ;
105 -> 106 ;
107 [label="gini = 0.0\nsamples = 116\nvalue = [0, 116, 0, 0]"] ;
106 -> 107 ;
108 [label="X[0] <= 0.2676\ngini = 0.0894\nsamples = 64\nvalue = [3, 61, 0, 0]"] ;
106 -> 108 ;
109 [label="gini = 0.0\nsamples = 34\nvalue = [0, 34, 0, 0]"] ;
108 -> 109 ;
110 [label="X[0] <= 0.3238\ngini = 0.18\nsamples = 30\nvalue = [3, 27, 0, 0]"] ;
108 -> 110 ;
111 [label="gini = 0.2311\nsamples = 15\nvalue = [2, 13, 0, 0]"] ;
110 -> 111 ;
112 [label="gini = 0.1244\nsamples = 15\nvalue = [1, 14, 0, 0]"] ;
110 -> 112 ;
113 [label="gini = 0.0\nsamples = 332\nvalue = [0, 332, 0, 0]"] ;
105 -> 113 ;
114 [label="X[0] <= 0.362\ngini = 0.0906\nsamples = 127\nvalue = [1, 121, 0, 5]"] ;
104 -> 114 ;
115 [label="gini = 0.48\nsamples = 15\nvalue = [1, 10, 0, 4]"] ;
114 -> 115 ;
116 [label="X[0] <= 0.4738\ngini = 0.0177\nsamples = 112\nvalue = [0, 111, 0, 1]"] ;
114 -> 116 ;
117 [label="gini = 0.1244\nsamples = 15\nvalue = [0, 14, 0, 1]"] ;
116 -> 117 ;
118 [label="gini = 0.0\nsamples = 97\nvalue = [0, 97, 0, 0]"] ;
116 -> 118 ;
119 [label="X[0] <= 0.3858\ngini = 0.5032\nsamples = 201\nvalue = [28, 133, 0, 40]"] ;
97 -> 119 ;
120 [label="X[0] <= 0.161\ngini = 0.5721\nsamples = 67\nvalue = [27, 6, 0, 34]"] ;
119 -> 120 ;
121 [label="gini = 0.5\nsamples = 26\nvalue = [16, 1, 0, 9]"] ;
120 -> 121 ;
122 [label="X[0] <= 0.2581\ngini = 0.5413\nsamples = 41\nvalue = [11, 5, 0, 25]"] ;
120 -> 122 ;
123 [label="gini = 0.5261\nsamples = 21\nvalue = [8, 1, 0, 12]"] ;
122 -> 123 ;
124 [label="gini = 0.515\nsamples = 20\nvalue = [3, 4, 0, 13]"] ;
122 -> 124 ;
125 [label="X[0] <= 0.5415\ngini = 0.0997\nsamples = 134\nvalue = [1, 127, 0, 6]"] ;
119 -> 125 ;
126 [label="gini = 0.445\nsamples = 20\nvalue = [1, 14, 0, 5]"] ;
125 -> 126 ;
127 [label="X[1] <= -0.046\ngini = 0.0174\nsamples = 114\nvalue = [0, 113, 0, 1]"] ;
125 -> 127 ;
128 [label="gini = 0.0\nsamples = 99\nvalue = [0, 99, 0, 0]"] ;
127 -> 128 ;
129 [label="gini = 0.1244\nsamples = 15\nvalue = [0, 14, 0, 1]"] ;
127 -> 129 ;
130 [label="X[1] <= 0.2389\ngini = 0.2956\nsamples = 1055\nvalue = [33, 79, 64, 879]"] ;
96 -> 130 ;
131 [label="X[0] <= 0.6674\ngini = 0.5409\nsamples = 215\nvalue = [22, 64, 0, 129]"] ;
130 -> 131 ;
132 [label="X[0] <= 0.4313\ngini = 0.3535\nsamples = 156\nvalue = [22, 11, 0, 123]"] ;
131 -> 132 ;
133 [label="X[0] <= 0.1271\ngini = 0.3147\nsamples = 114\nvalue = [21, 1, 0, 92]"] ;
132 -> 133 ;
134 [label="X[1] <= 0.103\ngini = 0.4444\nsamples = 33\nvalue = [11, 0, 0, 22]"] ;
133 -> 134 ;
135 [label="gini = 0.5\nsamples = 16\nvalue = [8, 0, 0, 8]"] ;
134 -> 135 ;
136 [label="gini = 0.2907\nsamples = 17\nvalue = [3, 0, 0, 14]"] ;
134 -> 136 ;
137 [label="X[1] <= 0.1493\ngini = 0.2378\nsamples = 81\nvalue = [10, 1, 0, 70]"] ;
133 -> 137 ;
138 [label="X[1] <= 0.0921\ngini = 0.2968\nsamples = 51\nvalue = [8, 1, 0, 42]"] ;
137 -> 138 ;
139 [label="X[0] <= 0.2541\ngini = 0.2454\nsamples = 36\nvalue = [4, 1, 0, 31]"] ;
138 -> 139 ;
140 [label="gini = 0.2907\nsamples = 17\nvalue = [3, 0, 0, 14]"] ;
139 -> 140 ;
141 [label="gini = 0.1939\nsamples = 19\nvalue = [1, 1, 0, 17]"] ;
139 -> 141 ;
142 [label="gini = 0.3911\nsamples = 15\nvalue = [4, 0, 0, 11]"] ;
138 -> 142 ;
143 [label="X[1] <= 0.1953\ngini = 0.1244\nsamples = 30\nvalue = [2, 0, 0, 28]"] ;
137 -> 143 ;
144 [label="gini = 0.0\nsamples = 15\nvalue = [0, 0, 0, 15]"] ;
143 -> 144 ;
145 [label="gini = 0.2311\nsamples = 15\nvalue = [2, 0, 0, 13]"] ;
143 -> 145 ;
146 [label="X[1] <= 0.0901\ngini = 0.398\nsamples = 42\nvalue = [1, 10, 0, 31]"] ;
132 -> 146 ;
147 [label="gini = 0.5494\nsamples = 18\nvalue = [1, 8, 0, 9]"] ;
146 -> 147 ;
148 [label="gini = 0.1528\nsamples = 24\nvalue = [0, 2, 0, 22]"] ;
146 -> 148 ;
149 [label="X[0] <= 0.8025\ngini = 0.1827\nsamples = 59\nvalue = [0, 53, 0, 6]"] ;
131 -> 149 ;
150 [label="gini = 0.4082\nsamples = 21\nvalue = [0, 15, 0, 6]"] ;
149 -> 150 ;
151 [label="gini = 0.0\nsamples = 38\nvalue = [0, 38, 0, 0]"] ;
149 -> 151 ;
152 [label="X[0] <= 0.2749\ngini = 0.1965\nsamples = 840\nvalue = [11, 15, 64, 750]"] ;
130 -> 152 ;
153 [label="X[1] <= 0.7758\ngini = 0.5067\nsamples = 145\nvalue = [7, 0, 49, 89]"] ;
152 -> 153 ;
154 [label="X[1] <= 0.5685\ngini = 0.298\nsamples = 105\nvalue = [7, 0, 11, 87]"] ;
153 -> 154 ;
155 [label="X[1] <= 0.3225\ngini = 0.2213\nsamples = 82\nvalue = [6, 0, 4, 72]"] ;
154 -> 155 ;
156 [label="gini = 0.3495\nsamples = 28\nvalue = [5, 0, 1, 22]"] ;
155 -> 156 ;
157 [label="X[1] <= 0.49\ngini = 0.1392\nsamples = 54\nvalue = [1, 0, 3, 50]"] ;
155 -> 157 ;
158 [label="X[1] <= 0.369\ngini = 0.05\nsamples = 39\nvalue = [0, 0, 1, 38]"] ;
157 -> 158 ;
159 [label="gini = 0.1244\nsamples = 15\nvalue = [0, 0, 1, 14]"] ;
158 -> 159 ;
160 [label="gini = 0.0\nsamples = 24\nvalue = [0, 0, 0, 24]"] ;
158 -> 160 ;
161 [label="gini = 0.3378\nsamples = 15\nvalue = [1, 0, 2, 12]"] ;
157 -> 161 ;
162 [label="gini = 0.4802\nsamples = 23\nvalue = [1, 0, 7, 15]"] ;
154 -> 162 ;
163 [label="X[1] <= 0.98\ngini = 0.095\nsamples = 40\nvalue = [0, 0, 38, 2]"] ;
153 -> 163 ;
164 [label="gini = 0.2311\nsamples = 15\nvalue = [0, 0, 13, 2]"] ;
163 -> 164 ;
165 [label="gini = 0.0\nsamples = 25\nvalue = [0, 0, 25, 0]"] ;
163 -> 165 ;
166 [label="X[1] <= 1.3578\ngini = 0.0945\nsamples = 695\nvalue = [4, 15, 15, 661]"] ;
152 -> 166 ;
167 [label="X[0] <= 1.1635\ngini = 0.08\nsamples = 680\nvalue = [4, 15, 9, 652]"] ;
166 -> 167 ;
168 [label="X[0] <= 0.374\ngini = 0.0611\nsamples = 641\nvalue = [4, 7, 9, 621]"] ;
167 -> 168 ;
169 [label="X[1] <= 0.632\ngini = 0.2077\nsamples = 79\nvalue = [3, 0, 6, 70]"] ;
168 -> 169 ;
170 [label="X[0] <= 0.3259\ngini = 0.1049\nsamples = 54\nvalue = [3, 0, 0, 51]"] ;
169 -> 170 ;
171 [label="gini = 0.0\nsamples = 27\nvalue = [0, 0, 0, 27]"] ;
170 -> 171 ;
172 [label="gini = 0.1975\nsamples = 27\nvalue = [3, 0, 0, 24]"] ;
170 -> 172 ;
173 [label="gini = 0.3648\nsamples = 25\nvalue = [0, 0, 6, 19]"] ;
169 -> 173 ;
174 [label="X[0] <= 1.0048\ngini = 0.0386\nsamples = 562\nvalue = [1, 7, 3, 551]"] ;
168 -> 174 ;
175 [label="X[1] <= 1.0236\ngini = 0.0269\nsamples = 515\nvalue = [1, 3, 3, 508]"] ;
174 -> 175 ;
176 [label="X[1] <= 0.4103\ngini = 0.0168\nsamples = 473\nvalue = [1, 3, 0, 469]"] ;
175 -> 176 ;
177 [label="X[0] <= 0.4821\ngini = 0.0866\nsamples = 89\nvalue = [1, 3, 0, 85]"] ;
176 -> 177 ;
178 [label="X[0] <= 0.4443\ngini = 0.16\nsamples = 35\nvalue = [1, 2, 0, 32]"] ;
177 -> 178 ;
179 [label="gini = 0.095\nsamples = 20\nvalue = [1, 0, 0, 19]"] ;
178 -> 179 ;
180 [label="gini = 0.2311\nsamples = 15\nvalue = [0, 2, 0, 13]"] ;
178 -> 180 ;
181 [label="X[0] <= 0.7158\ngini = 0.0364\nsamples = 54\nvalue = [0, 1, 0, 53]"] ;
177 -> 181 ;
182 [label="gini = 0.0\nsamples = 39\nvalue = [0, 0, 0, 39]"] ;
181 -> 182 ;
183 [label="gini = 0.1244\nsamples = 15\nvalue = [0, 1, 0, 14]"] ;
181 -> 183 ;
184 [label="gini = 0.0\nsamples = 384\nvalue = [0, 0, 0, 384]"] ;
176 -> 184 ;
185 [label="X[0] <= 0.7825\ngini = 0.1327\nsamples = 42\nvalue = [0, 0, 3, 39]"] ;
175 -> 185 ;
186 [label="gini = 0.32\nsamples = 15\nvalue = [0, 0, 3, 12]"] ;
185 -> 186 ;
187 [label="gini = 0.0\nsamples = 27\nvalue = [0, 0, 0, 27]"] ;
185 -> 187 ;
188 [label="X[1] <= 0.7042\ngini = 0.1557\nsamples = 47\nvalue = [0, 4, 0, 43]"] ;
174 -> 188 ;
189 [label="gini = 0.3911\nsamples = 15\nvalue = [0, 4, 0, 11]"] ;
188 -> 189 ;
190 [label="gini = 0.0\nsamples = 32\nvalue = [0, 0, 0, 32]"] ;
188 -> 190 ;
191 [label="X[1] <= 0.847\ngini = 0.3261\nsamples = 39\nvalue = [0, 8, 0, 31]"] ;
167 -> 191 ;
192 [label="gini = 0.4978\nsamples = 15\nvalue = [0, 8, 0, 7]"] ;
191 -> 192 ;
193 [label="gini = 0.0\nsamples = 24\nvalue = [0, 0, 0, 24]"] ;
191 -> 193 ;
194 [label="gini = 0.48\nsamples = 15\nvalue = [0, 0, 6, 9]"] ;
166 -> 194 ;
}